<?xml version="1.0"?>
<opencv_storage>
<cascade>
  <stageType>BOOST</stageType>
  <featureType>HAAR</featureType>
  <height>20</height>
  <width>20</width>
  <stageParams>
    <boostType>GAB</boostType>
    <minHitRate>9.9500000476837158e-01</minHitRate>
    <maxFalseAlarm>5.0000000000000000e-01</maxFalseAlarm>
    <weightTrimRate>9.4999999999999996e-01</weightTrimRate>
    <maxDepth>1</maxDepth>
    <maxWeakCount>100</maxWeakCount></stageParams>
  <featureParams>
    <maxCatCount>0</maxCatCount>
    <featSize>1</featSize>
    <mode>BASIC</mode></featureParams>
  <stageNum>10</stageNum>
  <stages>
    <!-- stage 0 -->
    <_>
      <maxWeakCount>5</maxWeakCount>
      <stageThreshold>-3.4112545847892761e-01</stageThreshold>
      <weakClassifiers>
        <_>
          <internalNodes>
            0 -1 55 6.8966933758929372e-04</internalNodes>
          <leafValues>
            4.1566747426986694e-01 -8.8353413343429565e-01</leafValues></_>
        <_>
          <internalNodes>
            0 -1 55 -5.8192468713968992e-04</internalNodes>
          <leafValues>
            -8.5446202754974365e-01 3.1869626045227051e-01</leafValues></_>
        <_>
          <internalNodes>
            0 -1 39 1.9981486722826958e-02</internalNodes>
          <leafValues>
            -4.2733711004257202e-01 7.0331281423568726e-01</leafValues></_>
        <_>
          <internalNodes>
            0 -1 94 -2.2758541163057089e-03</internalNodes>
          <leafValues>
            4.3479520082473755e-01 -5.5133903026580811e-01</leafValues></_>
        <_>
          <internalNodes>
            0 -1 57 -3.6088761407881975e-04</internalNodes>
          <leafValues>
            -8.3530706167221069e-01 2.1625432372093201e-01</leafValues></_></weakClassifiers></_>
    <!-- stage 1 -->
    <_>
      <maxWeakCount>7</maxWeakCount>
      <stageThreshold>-1.1495282649993896e+00</stageThreshold>
      <weakClassifiers>
        <_>
          <internalNodes>
            0 -1 76 3.0655504087917507e-04</internalNodes>
          <leafValues>
            4.8203843832015991e-01 -9.1419142484664917e-01</leafValues></_>
        <_>
          <internalNodes>
            0 -1 56 2.9750738758593798e-04</internalNodes>
          <leafValues>
            2.2259064018726349e-01 -7.7873498201370239e-01</leafValues></_>
        <_>
          <internalNodes>
            0 -1 59 9.2916097491979599e-03</internalNodes>
          <leafValues>
            -3.8862326741218567e-01 4.9476701021194458e-01</leafValues></_>
        <_>
          <internalNodes>
            0 -1 20 -5.1054999232292175e-02</internalNodes>
          <leafValues>
            8.3724236488342285e-01 -2.1346740424633026e-01</leafValues></_>
        <_>
          <internalNodes>
            0 -1 19 -7.5463645160198212e-02</internalNodes>
          <leafValues>
            6.0974925756454468e-01 -3.0412134528160095e-01</leafValues></_>
        <_>
          <internalNodes>
            0 -1 73 2.0882216631434858e-04</internalNodes>
          <leafValues>
            2.3010092973709106e-01 -7.8294456005096436e-01</leafValues></_>
        <_>
          <internalNodes>
            0 -1 73 -1.8650284619070590e-04</internalNodes>
          <leafValues>
            -7.3945355415344238e-01 2.1818353235721588e-01</leafValues></_></weakClassifiers></_>
    <!-- stage 2 -->
    <_>
      <maxWeakCount>7</maxWeakCount>
      <stageThreshold>-9.4485121965408325e-01</stageThreshold>
      <weakClassifiers>
        <_>
          <internalNodes>
            0 -1 76 -1.9271808560006320e-04</internalNodes>
          <leafValues>
            -7.7459746599197388e-01 4.2318722605705261e-01</leafValues></_>
        <_>
          <internalNodes>
            0 -1 23 1.7318526282906532e-02</internalNodes>
          <leafValues>
            -3.3815473318099976e-01 5.4057633876800537e-01</leafValues></_>
        <_>
          <internalNodes>
            0 -1 90 -3.0483386944979429e-04</internalNodes>
          <leafValues>
            -8.6883616447448730e-01 1.9050760567188263e-01</leafValues></_>
        <_>
          <internalNodes>
            0 -1 71 7.6635368168354034e-04</internalNodes>
          <leafValues>
            1.5186494588851929e-01 -8.4572112560272217e-01</leafValues></_>
        <_>
          <internalNodes>
            0 -1 42 -2.2222243249416351e-02</internalNodes>
          <leafValues>
            6.0884755849838257e-01 -2.8466150164604187e-01</leafValues></_>
        <_>
          <internalNodes>
            0 -1 5 5.8211265131831169e-03</internalNodes>
          <leafValues>
            -3.2767909765243530e-01 4.8909303545951843e-01</leafValues></_>
        <_>
          <internalNodes>
            0 -1 81 -2.1712308807764202e-04</internalNodes>
          <leafValues>
            -7.5991564989089966e-01 1.8815664947032928e-01</leafValues></_></weakClassifiers></_>
    <!-- stage 3 -->
    <_>
      <maxWeakCount>10</maxWeakCount>
      <stageThreshold>-7.9981696605682373e-01</stageThreshold>
      <weakClassifiers>
        <_>
          <internalNodes>
            0 -1 33 2.5169201195240021e-02</internalNodes>
          <leafValues>
            -8.4439724683761597e-02 6.7949867248535156e-01</leafValues></_>
        <_>
          <internalNodes>
            0 -1 81 2.7776649221777916e-04</internalNodes>
          <leafValues>
            2.1476361155509949e-01 -8.4738838672637939e-01</leafValues></_>
        <_>
          <internalNodes>
            0 -1 25 1.1846158653497696e-02</internalNodes>
          <leafValues>
            -2.4537688493728638e-01 6.4861017465591431e-01</leafValues></_>
        <_>
          <internalNodes>
            0 -1 31 -5.7949766516685486e-02</internalNodes>
          <leafValues>
            5.7250994443893433e-01 -2.7713471651077271e-01</leafValues></_>
        <_>
          <internalNodes>
            0 -1 13 -9.0394122526049614e-04</internalNodes>
          <leafValues>
            5.7295733690261841e-01 -1.9383724033832550e-01</leafValues></_>
        <_>
          <internalNodes>
            0 -1 102 -1.6537173651158810e-03</internalNodes>
          <leafValues>
            2.8865858912467957e-01 -4.8908010125160217e-01</leafValues></_>
        <_>
          <internalNodes>
            0 -1 68 -3.0210695695132017e-04</internalNodes>
          <leafValues>
            -8.7230604887008667e-01 1.2090903520584106e-01</leafValues></_>
        <_>
          <internalNodes>
            0 -1 28 -1.3976003974676132e-03</internalNodes>
          <leafValues>
            3.3119970560073853e-01 -3.7704068422317505e-01</leafValues></_>
        <_>
          <internalNodes>
            0 -1 51 -1.3449939433485270e-03</internalNodes>
          <leafValues>
            4.3615147471427917e-01 -2.9716646671295166e-01</leafValues></_>
        <_>
          <internalNodes>
            0 -1 16 3.0455363914370537e-02</internalNodes>
          <leafValues>
            1.9799716770648956e-01 -6.5739285945892334e-01</leafValues></_></weakClassifiers></_>
    <!-- stage 4 -->
    <_>
      <maxWeakCount>13</maxWeakCount>
      <stageThreshold>-1.1855971813201904e+00</stageThreshold>
      <weakClassifiers>
        <_>
          <internalNodes>
            0 -1 88 2.6810152921825647e-03</internalNodes>
          <leafValues>
            -1.1273135244846344e-01 6.5817582607269287e-01</leafValues></_>
        <_>
          <internalNodes>
            0 -1 40 5.7151401415467262e-03</internalNodes>
          <leafValues>
            -1.5251021087169647e-01 6.1345404386520386e-01</leafValues></_>
        <_>
          <internalNodes>
            0 -1 11 2.8858732432126999e-02</internalNodes>
          <leafValues>
            -2.3618273437023163e-01 6.3412785530090332e-01</leafValues></_>
        <_>
          <internalNodes>
            0 -1 96 2.7515980764292181e-04</internalNodes>
          <leafValues>
            1.9588473439216614e-01 -8.0539029836654663e-01</leafValues></_>
        <_>
          <internalNodes>
            0 -1 96 -2.2090497077442706e-04</internalNodes>
          <leafValues>
            -8.1773328781127930e-01 8.9378178119659424e-02</leafValues></_>
        <_>
          <internalNodes>
            0 -1 86 7.3736009653657675e-04</internalNodes>
          <leafValues>
            -3.4078553318977356e-01 3.6523848772048950e-01</leafValues></_>
        <_>
          <internalNodes>
            0 -1 26 5.7625831104815006e-03</internalNodes>
          <leafValues>
            -3.1354424357414246e-01 3.6415585875511169e-01</leafValues></_>
        <_>
          <internalNodes>
            0 -1 47 -6.8831199314445257e-04</internalNodes>
          <leafValues>
            -7.4874514341354370e-01 1.4360658824443817e-01</leafValues></_>
        <_>
          <internalNodes>
            0 -1 99 -4.1572100599296391e-05</internalNodes>
          <leafValues>
            2.1078652143478394e-01 -4.2846158146858215e-01</leafValues></_>
        <_>
          <internalNodes>
            0 -1 7 -1.1239422019571066e-03</internalNodes>
          <leafValues>
            4.2782446742057800e-01 -2.2941266000270844e-01</leafValues></_>
        <_>
          <internalNodes>
            0 -1 46 1.5417521819472313e-02</internalNodes>
          <leafValues>
            1.5054354071617126e-01 -8.0912059545516968e-01</leafValues></_>
        <_>
          <internalNodes>
            0 -1 1 1.6762208193540573e-02</internalNodes>
          <leafValues>
            -2.5915074348449707e-01 3.6512434482574463e-01</leafValues></_>
        <_>
          <internalNodes>
            0 -1 63 -1.9260037515778095e-04</internalNodes>
          <leafValues>
            3.0697047710418701e-01 -3.6993128061294556e-01</leafValues></_></weakClassifiers></_>
    <!-- stage 5 -->
    <_>
      <maxWeakCount>13</maxWeakCount>
      <stageThreshold>-9.5581769943237305e-01</stageThreshold>
      <weakClassifiers>
        <_>
          <internalNodes>
            0 -1 72 -2.9885704861953855e-04</internalNodes>
          <leafValues>
            -8.1343281269073486e-01 2.9941433668136597e-01</leafValues></_>
        <_>
          <internalNodes>
            0 -1 29 -1.5059998258948326e-03</internalNodes>
          <leafValues>
            4.4962009787559509e-01 -2.8437751531600952e-01</leafValues></_>
        <_>
          <internalNodes>
            0 -1 62 1.9744455814361572e-02</internalNodes>
          <leafValues>
            -2.9712831974029541e-01 4.9502861499786377e-01</leafValues></_>
        <_>
          <internalNodes>
            0 -1 74 6.5024994546547532e-04</internalNodes>
          <leafValues>
            1.1971802264451981e-01 -9.5833468437194824e-01</leafValues></_>
        <_>
          <internalNodes>
            0 -1 78 -5.8837514370679855e-04</internalNodes>
          <leafValues>
            3.3378791809082031e-01 -4.0690994262695313e-01</leafValues></_>
        <_>
          <internalNodes>
            0 -1 92 1.3050304260104895e-03</internalNodes>
          <leafValues>
            -2.5018802285194397e-01 6.1237692832946777e-01</leafValues></_>
        <_>
          <internalNodes>
            0 -1 91 -1.8133662524633110e-04</internalNodes>
          <leafValues>
            -7.1486645936965942e-01 1.4669772982597351e-01</leafValues></_>
        <_>
          <internalNodes>
            0 -1 43 -3.4867353737354279e-02</internalNodes>
          <leafValues>
            6.6235733032226563e-01 -1.6233491897583008e-01</leafValues></_>
        <_>
          <internalNodes>
            0 -1 3 2.8457809239625931e-02</internalNodes>
          <leafValues>
            -3.4370091557502747e-01 4.1469633579254150e-01</leafValues></_>
        <_>
          <internalNodes>
            0 -1 14 -1.0540352668613195e-03</internalNodes>
          <leafValues>
            5.9946399927139282e-01 -1.6863484680652618e-01</leafValues></_>
        <_>
          <internalNodes>
            0 -1 110 -1.3553861062973738e-03</internalNodes>
          <leafValues>
            3.7256747484207153e-01 -2.6425126194953918e-01</leafValues></_>
        <_>
          <internalNodes>
            0 -1 91 2.5696516968309879e-04</internalNodes>
          <leafValues>
            1.4713062345981598e-01 -7.3094284534454346e-01</leafValues></_>
        <_>
          <internalNodes>
            0 -1 54 -1.4723471831530333e-03</internalNodes>
          <leafValues>
            3.2895958423614502e-01 -2.7735140919685364e-01</leafValues></_></weakClassifiers></_>
    <!-- stage 6 -->
    <_>
      <maxWeakCount>13</maxWeakCount>
      <stageThreshold>-8.4865903854370117e-01</stageThreshold>
      <weakClassifiers>
        <_>
          <internalNodes>
            0 -1 52 2.0872638560831547e-04</internalNodes>
          <leafValues>
            3.3230531215667725e-01 -6.4532017707824707e-01</leafValues></_>
        <_>
          <internalNodes>
            0 -1 17 -4.7366897342726588e-04</internalNodes>
          <leafValues>
            3.6805891990661621e-01 -2.6665571331977844e-01</leafValues></_>
        <_>
          <internalNodes>
            0 -1 52 -8.0396421253681183e-05</internalNodes>
          <leafValues>
            -4.5073169469833374e-01 2.5658613443374634e-01</leafValues></_>
        <_>
          <internalNodes>
            0 -1 103 -5.6014652363955975e-04</internalNodes>
          <leafValues>
            1.7714273929595947e-01 -4.9885123968124390e-01</leafValues></_>
        <_>
          <internalNodes>
            0 -1 98 2.5447914958931506e-04</internalNodes>
          <leafValues>
            1.3238227367401123e-01 -6.6978436708450317e-01</leafValues></_>
        <_>
          <internalNodes>
            0 -1 45 7.2710122913122177e-03</internalNodes>
          <leafValues>
            -2.2991733253002167e-01 4.6349808573722839e-01</leafValues></_>
        <_>
          <internalNodes>
            0 -1 30 -6.4002469182014465e-02</internalNodes>
          <leafValues>
            6.0787612199783325e-01 -1.6556461155414581e-01</leafValues></_>
        <_>
          <internalNodes>
            0 -1 79 4.2500343988649547e-04</internalNodes>
          <leafValues>
            1.0213962197303772e-01 -7.9535233974456787e-01</leafValues></_>
        <_>
          <internalNodes>
            0 -1 27 -6.5728125628083944e-04</internalNodes>
          <leafValues>
            2.8969892859458923e-01 -3.2898500561714172e-01</leafValues></_>
        <_>
          <internalNodes>
            0 -1 93 -6.1909994110465050e-04</internalNodes>
          <leafValues>
            3.4731146693229675e-01 -3.0076804757118225e-01</leafValues></_>
        <_>
          <internalNodes>
            0 -1 0 -4.7027939558029175e-01</internalNodes>
          <leafValues>
            -8.8378965854644775e-01 1.0035131871700287e-01</leafValues></_>
        <_>
          <internalNodes>
            0 -1 37 -6.2595505733042955e-04</internalNodes>
          <leafValues>
            -7.1997767686843872e-01 7.8565537929534912e-02</leafValues></_>
        <_>
          <internalNodes>
            0 -1 12 -1.8149808747693896e-03</internalNodes>
          <leafValues>
            3.9227479696273804e-01 -2.2032049298286438e-01</leafValues></_></weakClassifiers></_>
    <!-- stage 7 -->
    <_>
      <maxWeakCount>16</maxWeakCount>
      <stageThreshold>-8.4648805856704712e-01</stageThreshold>
      <weakClassifiers>
        <_>
          <internalNodes>
            0 -1 84 2.4976959684863687e-04</internalNodes>
          <leafValues>
            3.3699059486389160e-01 -5.8035713434219360e-01</leafValues></_>
        <_>
          <internalNodes>
            0 -1 87 1.2192751746624708e-03</internalNodes>
          <leafValues>
            -2.7393868565559387e-01 3.4994798898696899e-01</leafValues></_>
        <_>
          <internalNodes>
            0 -1 15 -5.3466528654098511e-02</internalNodes>
          <leafValues>
            5.0997906923294067e-01 -1.6417910158634186e-01</leafValues></_>
        <_>
          <internalNodes>
            0 -1 41 -6.6186706535518169e-03</internalNodes>
          <leafValues>
            5.7227098941802979e-01 -2.9529458284378052e-01</leafValues></_>
        <_>
          <internalNodes>
            0 -1 84 -1.7478912195656449e-04</internalNodes>
          <leafValues>
            -5.3362232446670532e-01 2.1501758694648743e-01</leafValues></_>
        <_>
          <internalNodes>
            0 -1 49 -5.4002332035452127e-04</internalNodes>
          <leafValues>
            3.0962505936622620e-01 -2.7893367409706116e-01</leafValues></_>
        <_>
          <internalNodes>
            0 -1 89 2.7188187232241035e-04</internalNodes>
          <leafValues>
            1.5218645334243774e-01 -6.7950081825256348e-01</leafValues></_>
        <_>
          <internalNodes>
            0 -1 108 -4.8311287537217140e-03</internalNodes>
          <leafValues>
            4.5621877908706665e-01 -1.8390892446041107e-01</leafValues></_>
        <_>
          <internalNodes>
            0 -1 109 4.8356535262428224e-04</internalNodes>
          <leafValues>
            -2.4797458946704865e-01 3.9353215694427490e-01</leafValues></_>
        <_>
          <internalNodes>
            0 -1 53 -1.9775531254708767e-03</internalNodes>
          <leafValues>
            -7.8199058771133423e-01 1.3455130159854889e-01</leafValues></_>
        <_>
          <internalNodes>
            0 -1 24 1.5957143157720566e-02</internalNodes>
          <leafValues>
            -2.8055337071418762e-01 3.2576382160186768e-01</leafValues></_>
        <_>
          <internalNodes>
            0 -1 64 -6.2154175247997046e-04</internalNodes>
          <leafValues>
            -5.6832921504974365e-01 1.6659836471080780e-01</leafValues></_>
        <_>
          <internalNodes>
            0 -1 10 -2.6320926845073700e-03</internalNodes>
          <leafValues>
            4.1297814249992371e-01 -2.0124632120132446e-01</leafValues></_>
        <_>
          <internalNodes>
            0 -1 9 1.6533350571990013e-03</internalNodes>
          <leafValues>
            -2.1738909184932709e-01 3.9896053075790405e-01</leafValues></_>
        <_>
          <internalNodes>
            0 -1 100 2.2978889755904675e-03</internalNodes>
          <leafValues>
            -1.6279558837413788e-01 5.7708424329757690e-01</leafValues></_>
        <_>
          <internalNodes>
            0 -1 97 -1.9029893155675381e-04</internalNodes>
          <leafValues>
            -4.8302868008613586e-01 1.7875072360038757e-01</leafValues></_></weakClassifiers></_>
    <!-- stage 8 -->
    <_>
      <maxWeakCount>19</maxWeakCount>
      <stageThreshold>-9.6056079864501953e-01</stageThreshold>
      <weakClassifiers>
        <_>
          <internalNodes>
            0 -1 53 -2.6807934045791626e-04</internalNodes>
          <leafValues>
            4.7606018185615540e-01 -6.2418725341558456e-02</leafValues></_>
        <_>
          <internalNodes>
            0 -1 48 2.5073942379094660e-04</internalNodes>
          <leafValues>
            1.2946763634681702e-01 -6.7453646659851074e-01</leafValues></_>
        <_>
          <internalNodes>
            0 -1 60 -1.5572899021208286e-02</internalNodes>
          <leafValues>
            3.9361920952796936e-01 -2.2729252278804779e-01</leafValues></_>
        <_>
          <internalNodes>
            0 -1 38 -4.3056989088654518e-03</internalNodes>
          <leafValues>
            4.1917306184768677e-01 -1.8832930922508240e-01</leafValues></_>
        <_>
          <internalNodes>
            0 -1 85 2.0608045160770416e-03</internalNodes>
          <leafValues>
            -1.8169416487216949e-01 4.3623778223991394e-01</leafValues></_>
        <_>
          <internalNodes>
            0 -1 82 -2.1845885203219950e-04</internalNodes>
          <leafValues>
            -5.3697413206100464e-01 1.2301496416330338e-01</leafValues></_>
        <_>
          <internalNodes>
            0 -1 76 -8.4387953393161297e-05</internalNodes>
          <leafValues>
            -5.2471494674682617e-01 1.4583483338356018e-01</leafValues></_>
        <_>
          <internalNodes>
            0 -1 35 -4.9164049327373505e-02</internalNodes>
          <leafValues>
            5.6328690052032471e-01 -1.3811117410659790e-01</leafValues></_>
        <_>
          <internalNodes>
            0 -1 80 -1.0538161732256413e-03</internalNodes>
          <leafValues>
            2.3002627491950989e-01 -4.1294193267822266e-01</leafValues></_>
        <_>
          <internalNodes>
            0 -1 69 -4.3149065459147096e-04</internalNodes>
          <leafValues>
            4.2717012763023376e-01 -2.2677372395992279e-01</leafValues></_>
        <_>
          <internalNodes>
            0 -1 44 1.6176413744688034e-02</internalNodes>
          <leafValues>
            -2.2724005579948425e-01 4.1247743368148804e-01</leafValues></_>
        <_>
          <internalNodes>
            0 -1 70 -3.6034053191542625e-03</internalNodes>
          <leafValues>
            -9.0013313293457031e-01 1.2032409757375717e-01</leafValues></_>
        <_>
          <internalNodes>
            0 -1 32 -5.4457165300846100e-02</internalNodes>
          <leafValues>
            -6.2090009450912476e-01 7.8233346343040466e-02</leafValues></_>
        <_>
          <internalNodes>
            0 -1 2 5.2797782700508833e-04</internalNodes>
          <leafValues>
            -2.9462793469429016e-01 2.3153768479824066e-01</leafValues></_>
        <_>
          <internalNodes>
            0 -1 61 -4.5778546482324600e-03</internalNodes>
          <leafValues>
            3.4662607312202454e-01 -2.1840769052505493e-01</leafValues></_>
        <_>
          <internalNodes>
            0 -1 4 -5.9280209243297577e-02</internalNodes>
          <leafValues>
            4.7303563356399536e-01 -1.7352667450904846e-01</leafValues></_>
        <_>
          <internalNodes>
            0 -1 65 2.2518527111969888e-04</internalNodes>
          <leafValues>
            1.0553716868162155e-01 -5.9064275026321411e-01</leafValues></_>
        <_>
          <internalNodes>
            0 -1 75 1.4273959677666426e-03</internalNodes>
          <leafValues>
            5.7512946426868439e-02 -8.9543145895004272e-01</leafValues></_>
        <_>
          <internalNodes>
            0 -1 107 4.5208535157144070e-03</internalNodes>
          <leafValues>
            -1.4422197639942169e-01 4.6225699782371521e-01</leafValues></_></weakClassifiers></_>
    <!-- stage 9 -->
    <_>
      <maxWeakCount>20</maxWeakCount>
      <stageThreshold>-7.6351469755172729e-01</stageThreshold>
      <weakClassifiers>
        <_>
          <internalNodes>
            0 -1 18 -3.3608317608013749e-04</internalNodes>
          <leafValues>
            5.3218209743499756e-01 -4.5191194862127304e-02</leafValues></_>
        <_>
          <internalNodes>
            0 -1 66 -4.8251586849801242e-04</internalNodes>
          <leafValues>
            -7.2972071170806885e-01 1.2305237352848053e-01</leafValues></_>
        <_>
          <internalNodes>
            0 -1 95 -1.5101232565939426e-04</internalNodes>
          <leafValues>
            3.4563940763473511e-01 -2.0067183673381805e-01</leafValues></_>
        <_>
          <internalNodes>
            0 -1 106 1.1880476959049702e-03</internalNodes>
          <leafValues>
            -2.9940822720527649e-01 2.6333406567573547e-01</leafValues></_>
        <_>
          <internalNodes>
            0 -1 104 2.4533583782613277e-03</internalNodes>
          <leafValues>
            -1.5397517383098602e-01 5.2454596757888794e-01</leafValues></_>
        <_>
          <internalNodes>
            0 -1 105 -7.5988180469721556e-05</internalNodes>
          <leafValues>
            1.9541622698307037e-01 -3.9394760131835938e-01</leafValues></_>
        <_>
          <internalNodes>
            0 -1 8 -6.0538202524185181e-04</internalNodes>
          <leafValues>
            3.2834234833717346e-01 -1.9656085968017578e-01</leafValues></_>
        <_>
          <internalNodes>
            0 -1 6 7.9786600545048714e-03</internalNodes>
          <leafValues>
            -1.4955173432826996e-01 4.4409561157226563e-01</leafValues></_>
        <_>
          <internalNodes>
            0 -1 74 -3.1306839082390070e-04</internalNodes>
          <leafValues>
            -7.5573366880416870e-01 1.0105720907449722e-01</leafValues></_>
        <_>
          <internalNodes>
            0 -1 101 -8.3273356722202152e-05</internalNodes>
          <leafValues>
            -3.4491300582885742e-01 1.7898532748222351e-01</leafValues></_>
        <_>
          <internalNodes>
            0 -1 34 9.3074273318052292e-03</internalNodes>
          <leafValues>
            -1.6823042929172516e-01 3.7748670578002930e-01</leafValues></_>
        <_>
          <internalNodes>
            0 -1 34 -5.3844559006392956e-03</internalNodes>
          <leafValues>
            5.7175832986831665e-01 -1.3272713124752045e-01</leafValues></_>
        <_>
          <internalNodes>
            0 -1 50 -1.1438555084168911e-03</internalNodes>
          <leafValues>
            3.2985761761665344e-01 -2.0962925255298615e-01</leafValues></_>
        <_>
          <internalNodes>
            0 -1 77 3.5863195080310106e-04</internalNodes>
          <leafValues>
            -2.2673410177230835e-01 4.7516274452209473e-01</leafValues></_>
        <_>
          <internalNodes>
            0 -1 58 -4.3312557041645050e-02</internalNodes>
          <leafValues>
            4.7570550441741943e-01 -1.6907835006713867e-01</leafValues></_>
        <_>
          <internalNodes>
            0 -1 21 2.7038073167204857e-03</internalNodes>
          <leafValues>
            1.9023557007312775e-01 -3.9979693293571472e-01</leafValues></_>
        <_>
          <internalNodes>
            0 -1 36 -1.7142000433523208e-04</internalNodes>
          <leafValues>
            -4.5145493745803833e-01 1.6271130740642548e-01</leafValues></_>
        <_>
          <internalNodes>
            0 -1 83 -2.4252245202660561e-04</internalNodes>
          <leafValues>
            2.9483115673065186e-01 -2.5118994712829590e-01</leafValues></_>
        <_>
          <internalNodes>
            0 -1 22 -1.7253549303859472e-03</internalNodes>
          <leafValues>
            3.4247282147407532e-01 -2.2863151133060455e-01</leafValues></_>
        <_>
          <internalNodes>
            0 -1 67 -9.8417152184993029e-04</internalNodes>
          <leafValues>
            2.5014260411262512e-01 -2.6336732506752014e-01</leafValues></_></weakClassifiers></_></stages>
  <features>
    <_>
      <rects>
        <_>
          0 0 20 19 -1.</_>
        <_>
          10 0 10 19 2.</_></rects>
      <tilted>0</tilted></_>
    <_>
      <rects>
        <_>
          0 4 8 3 -1.</_>
        <_>
          4 4 4 3 2.</_></rects>
      <tilted>0</tilted></_>
    <_>
      <rects>
        <_>
          0 7 4 1 -1.</_>
        <_>
          2 7 2 1 2.</_></rects>
      <tilted>0</tilted></_>
    <_>
      <rects>
        <_>
          0 12 10 4 -1.</_>
        <_>
          5 12 5 4 2.</_></rects>
      <tilted>0</tilted></_>
    <_>
      <rects>
        <_>
          0 12 12 8 -1.</_>
        <_>
          0 12 6 4 2.</_>
        <_>
          6 16 6 4 2.</_></rects>
      <tilted>0</tilted></_>
    <_>
      <rects>
        <_>
          1 10 4 3 -1.</_>
        <_>
          3 10 2 3 2.</_></rects>
      <tilted>0</tilted></_>
    <_>
      <rects>
        <_>
          2 8 3 5 -1.</_>
        <_>
          3 8 1 5 3.</_></rects>
      <tilted>0</tilted></_>
    <_>
      <rects>
        <_>
          2 8 2 2 -1.</_>
        <_>
          2 9 2 1 2.</_></rects>
      <tilted>0</tilted></_>
    <_>
      <rects>
        <_>
          2 10 3 1 -1.</_>
        <_>
          3 10 1 1 3.</_></rects>
      <tilted>0</tilted></_>
    <_>
      <rects>
        <_>
          2 10 2 2 -1.</_>
        <_>
          3 10 1 2 2.</_></rects>
      <tilted>0</tilted></_>
    <_>
      <rects>
        <_>
          2 10 3 2 -1.</_>
        <_>
          3 10 1 2 3.</_></rects>
      <tilted>0</tilted></_>
    <_>
      <rects>
        <_>
          3 3 13 4 -1.</_>
        <_>
          3 5 13 2 2.</_></rects>
      <tilted>0</tilted></_>
    <_>
      <rects>
        <_>
          3 7 2 2 -1.</_>
        <_>
          4 7 1 2 2.</_></rects>
      <tilted>0</tilted></_>
    <_>
      <rects>
        <_>
          3 8 2 1 -1.</_>
        <_>
          4 8 1 1 2.</_></rects>
      <tilted>0</tilted></_>
    <_>
      <rects>
        <_>
          3 9 2 1 -1.</_>
        <_>
          4 9 1 1 2.</_></rects>
      <tilted>0</tilted></_>
    <_>
      <rects>
        <_>
          3 12 12 6 -1.</_>
        <_>
          3 15 12 3 2.</_></rects>
      <tilted>0</tilted></_>
    <_>
      <rects>
        <_>
          4 5 9 10 -1.</_>
        <_>
          4 10 9 5 2.</_></rects>
      <tilted>0</tilted></_>
    <_>
      <rects>
        <_>
          4 8 2 2 -1.</_>
        <_>
          5 8 1 2 2.</_></rects>
      <tilted>0</tilted></_>
    <_>
      <rects>
        <_>
          4 10 2 1 -1.</_>
        <_>
          5 10 1 1 2.</_></rects>
      <tilted>0</tilted></_>
    <_>
      <rects>
        <_>
          4 11 12 8 -1.</_>
        <_>
          4 15 12 4 2.</_></rects>
      <tilted>0</tilted></_>
    <_>
      <rects>
        <_>
          5 3 9 4 -1.</_>
        <_>
          5 5 9 2 2.</_></rects>
      <tilted>0</tilted></_>
    <_>
      <rects>
        <_>
          5 4 6 12 -1.</_>
        <_>
          5 10 6 6 2.</_></rects>
      <tilted>0</tilted></_>
    <_>
      <rects>
        <_>
          5 10 6 2 -1.</_>
        <_>
          7 10 2 2 3.</_></rects>
      <tilted>0</tilted></_>
    <_>
      <rects>
        <_>
          6 1 6 4 -1.</_>
        <_>
          6 3 6 2 2.</_></rects>
      <tilted>0</tilted></_>
    <_>
      <rects>
        <_>
          6 2 5 6 -1.</_>
        <_>
          6 4 5 2 3.</_></rects>
      <tilted>0</tilted></_>
    <_>
      <rects>
        <_>
          6 2 7 3 -1.</_>
        <_>
          6 3 7 1 3.</_></rects>
      <tilted>0</tilted></_>
    <_>
      <rects>
        <_>
          6 8 12 3 -1.</_>
        <_>
          10 8 4 3 3.</_></rects>
      <tilted>0</tilted></_>
    <_>
      <rects>
        <_>
          6 9 6 1 -1.</_>
        <_>
          8 9 2 1 3.</_></rects>
      <tilted>0</tilted></_>
    <_>
      <rects>
        <_>
          6 9 6 2 -1.</_>
        <_>
          8 9 2 2 3.</_></rects>
      <tilted>0</tilted></_>
    <_>
      <rects>
        <_>
          6 10 6 2 -1.</_>
        <_>
          8 10 2 2 3.</_></rects>
      <tilted>0</tilted></_>
    <_>
      <rects>
        <_>
          6 13 8 6 -1.</_>
        <_>
          6 16 8 3 2.</_></rects>
      <tilted>0</tilted></_>
    <_>
      <rects>
        <_>
          6 13 10 6 -1.</_>
        <_>
          6 16 10 3 2.</_></rects>
      <tilted>0</tilted></_>
    <_>
      <rects>
        <_>
          7 1 8 6 -1.</_>
        <_>
          11 1 4 6 2.</_></rects>
      <tilted>0</tilted></_>
    <_>
      <rects>
        <_>
          7 2 7 6 -1.</_>
        <_>
          7 4 7 2 3.</_></rects>
      <tilted>0</tilted></_>
    <_>
      <rects>
        <_>
          7 3 4 3 -1.</_>
        <_>
          7 4 4 1 3.</_></rects>
      <tilted>0</tilted></_>
    <_>
      <rects>
        <_>
          7 3 7 4 -1.</_>
        <_>
          7 5 7 2 2.</_></rects>
      <tilted>0</tilted></_>
    <_>
      <rects>
        <_>
          7 8 2 2 -1.</_>
        <_>
          7 9 2 1 2.</_></rects>
      <tilted>0</tilted></_>
    <_>
      <rects>
        <_>
          7 8 3 3 -1.</_>
        <_>
          7 9 3 1 3.</_></rects>
      <tilted>0</tilted></_>
    <_>
      <rects>
        <_>
          7 16 5 3 -1.</_>
        <_>
          7 17 5 1 3.</_></rects>
      <tilted>0</tilted></_>
    <_>
      <rects>
        <_>
          8 1 4 6 -1.</_>
        <_>
          8 3 4 2 3.</_></rects>
      <tilted>0</tilted></_>
    <_>
      <rects>
        <_>
          8 2 2 3 -1.</_>
        <_>
          8 3 2 1 3.</_></rects>
      <tilted>0</tilted></_>
    <_>
      <rects>
        <_>
          8 3 4 2 -1.</_>
        <_>
          8 4 4 1 2.</_></rects>
      <tilted>0</tilted></_>
    <_>
      <rects>
        <_>
          8 3 4 4 -1.</_>
        <_>
          8 5 4 2 2.</_></rects>
      <tilted>0</tilted></_>
    <_>
      <rects>
        <_>
          8 3 5 6 -1.</_>
        <_>
          8 5 5 2 3.</_></rects>
      <tilted>0</tilted></_>
    <_>
      <rects>
        <_>
          8 3 11 4 -1.</_>
        <_>
          8 5 11 2 2.</_></rects>
      <tilted>0</tilted></_>
    <_>
      <rects>
        <_>
          8 4 8 2 -1.</_>
        <_>
          8 4 4 1 2.</_>
        <_>
          12 5 4 1 2.</_></rects>
      <tilted>0</tilted></_>
    <_>
      <rects>
        <_>
          8 5 4 9 -1.</_>
        <_>
          8 8 4 3 3.</_></rects>
      <tilted>0</tilted></_>
    <_>
      <rects>
        <_>
          8 7 3 3 -1.</_>
        <_>
          8 8 3 1 3.</_></rects>
      <tilted>0</tilted></_>
    <_>
      <rects>
        <_>
          8 8 1 3 -1.</_>
        <_>
          8 9 1 1 3.</_></rects>
      <tilted>0</tilted></_>
    <_>
      <rects>
        <_>
          8 8 3 4 -1.</_>
        <_>
          9 8 1 4 3.</_></rects>
      <tilted>0</tilted></_>
    <_>
      <rects>
        <_>
          8 8 4 2 -1.</_>
        <_>
          10 8 2 2 2.</_></rects>
      <tilted>0</tilted></_>
    <_>
      <rects>
        <_>
          8 8 4 3 -1.</_>
        <_>
          10 8 2 3 2.</_></rects>
      <tilted>0</tilted></_>
    <_>
      <rects>
        <_>
          8 9 1 3 -1.</_>
        <_>
          8 10 1 1 3.</_></rects>
      <tilted>0</tilted></_>
    <_>
      <rects>
        <_>
          8 9 3 2 -1.</_>
        <_>
          9 9 1 2 3.</_></rects>
      <tilted>0</tilted></_>
    <_>
      <rects>
        <_>
          8 9 4 3 -1.</_>
        <_>
          10 9 2 3 2.</_></rects>
      <tilted>0</tilted></_>
    <_>
      <rects>
        <_>
          8 9 3 3 -1.</_>
        <_>
          8 10 3 1 3.</_></rects>
      <tilted>0</tilted></_>
    <_>
      <rects>
        <_>
          8 10 1 3 -1.</_>
        <_>
          8 11 1 1 3.</_></rects>
      <tilted>0</tilted></_>
    <_>
      <rects>
        <_>
          8 10 2 3 -1.</_>
        <_>
          8 11 2 1 3.</_></rects>
      <tilted>0</tilted></_>
    <_>
      <rects>
        <_>
          8 14 5 6 -1.</_>
        <_>
          8 17 5 3 2.</_></rects>
      <tilted>0</tilted></_>
    <_>
      <rects>
        <_>
          9 1 5 4 -1.</_>
        <_>
          9 3 5 2 2.</_></rects>
      <tilted>0</tilted></_>
    <_>
      <rects>
        <_>
          9 1 10 4 -1.</_>
        <_>
          9 1 5 2 2.</_>
        <_>
          14 3 5 2 2.</_></rects>
      <tilted>0</tilted></_>
    <_>
      <rects>
        <_>
          9 2 1 8 -1.</_>
        <_>
          9 6 1 4 2.</_></rects>
      <tilted>0</tilted></_>
    <_>
      <rects>
        <_>
          9 2 7 4 -1.</_>
        <_>
          9 4 7 2 2.</_></rects>
      <tilted>0</tilted></_>
    <_>
      <rects>
        <_>
          9 4 1 2 -1.</_>
        <_>
          9 5 1 1 2.</_></rects>
      <tilted>0</tilted></_>
    <_>
      <rects>
        <_>
          9 6 2 3 -1.</_>
        <_>
          9 7 2 1 3.</_></rects>
      <tilted>0</tilted></_>
    <_>
      <rects>
        <_>
          9 7 1 3 -1.</_>
        <_>
          9 8 1 1 3.</_></rects>
      <tilted>0</tilted></_>
    <_>
      <rects>
        <_>
          9 7 2 3 -1.</_>
        <_>
          9 8 2 1 3.</_></rects>
      <tilted>0</tilted></_>
    <_>
      <rects>
        <_>
          9 7 4 2 -1.</_>
        <_>
          11 7 2 2 2.</_></rects>
      <tilted>0</tilted></_>
    <_>
      <rects>
        <_>
          9 8 1 3 -1.</_>
        <_>
          9 9 1 1 3.</_></rects>
      <tilted>0</tilted></_>
    <_>
      <rects>
        <_>
          9 8 3 2 -1.</_>
        <_>
          10 8 1 2 3.</_></rects>
      <tilted>0</tilted></_>
    <_>
      <rects>
        <_>
          9 8 3 3 -1.</_>
        <_>
          10 8 1 3 3.</_></rects>
      <tilted>0</tilted></_>
    <_>
      <rects>
        <_>
          9 8 2 3 -1.</_>
        <_>
          9 9 2 1 3.</_></rects>
      <tilted>0</tilted></_>
    <_>
      <rects>
        <_>
          9 9 1 2 -1.</_>
        <_>
          9 10 1 1 2.</_></rects>
      <tilted>0</tilted></_>
    <_>
      <rects>
        <_>
          9 9 1 3 -1.</_>
        <_>
          9 10 1 1 3.</_></rects>
      <tilted>0</tilted></_>
    <_>
      <rects>
        <_>
          9 9 2 3 -1.</_>
        <_>
          9 10 2 1 3.</_></rects>
      <tilted>0</tilted></_>
    <_>
      <rects>
        <_>
          9 10 3 1 -1.</_>
        <_>
          10 10 1 1 3.</_></rects>
      <tilted>0</tilted></_>
    <_>
      <rects>
        <_>
          9 10 1 3 -1.</_>
        <_>
          9 11 1 1 3.</_></rects>
      <tilted>0</tilted></_>
    <_>
      <rects>
        <_>
          9 10 2 2 -1.</_>
        <_>
          10 10 1 2 2.</_></rects>
      <tilted>0</tilted></_>
    <_>
      <rects>
        <_>
          9 10 4 1 -1.</_>
        <_>
          11 10 2 1 2.</_></rects>
      <tilted>0</tilted></_>
    <_>
      <rects>
        <_>
          9 10 2 3 -1.</_>
        <_>
          9 11 2 1 3.</_></rects>
      <tilted>0</tilted></_>
    <_>
      <rects>
        <_>
          9 10 6 1 -1.</_>
        <_>
          12 10 3 1 2.</_></rects>
      <tilted>0</tilted></_>
    <_>
      <rects>
        <_>
          9 11 1 3 -1.</_>
        <_>
          9 12 1 1 3.</_></rects>
      <tilted>0</tilted></_>
    <_>
      <rects>
        <_>
          9 11 2 3 -1.</_>
        <_>
          9 12 2 1 3.</_></rects>
      <tilted>0</tilted></_>
    <_>
      <rects>
        <_>
          9 11 6 2 -1.</_>
        <_>
          11 11 2 2 3.</_></rects>
      <tilted>0</tilted></_>
    <_>
      <rects>
        <_>
          9 12 1 3 -1.</_>
        <_>
          9 13 1 1 3.</_></rects>
      <tilted>0</tilted></_>
    <_>
      <rects>
        <_>
          9 16 3 3 -1.</_>
        <_>
          9 17 3 1 3.</_></rects>
      <tilted>0</tilted></_>
    <_>
      <rects>
        <_>
          10 2 1 3 -1.</_>
        <_>
          10 3 1 1 3.</_></rects>
      <tilted>0</tilted></_>
    <_>
      <rects>
        <_>
          10 3 1 3 -1.</_>
        <_>
          10 4 1 1 3.</_></rects>
      <tilted>0</tilted></_>
    <_>
      <rects>
        <_>
          10 3 2 3 -1.</_>
        <_>
          10 4 2 1 3.</_></rects>
      <tilted>0</tilted></_>
    <_>
      <rects>
        <_>
          10 6 1 3 -1.</_>
        <_>
          10 7 1 1 3.</_></rects>
      <tilted>0</tilted></_>
    <_>
      <rects>
        <_>
          10 8 1 3 -1.</_>
        <_>
          10 9 1 1 3.</_></rects>
      <tilted>0</tilted></_>
    <_>
      <rects>
        <_>
          10 9 1 3 -1.</_>
        <_>
          10 10 1 1 3.</_></rects>
      <tilted>0</tilted></_>
    <_>
      <rects>
        <_>
          10 9 2 3 -1.</_>
        <_>
          11 9 1 3 2.</_></rects>
      <tilted>0</tilted></_>
    <_>
      <rects>
        <_>
          10 9 2 5 -1.</_>
        <_>
          11 9 1 5 2.</_></rects>
      <tilted>0</tilted></_>
    <_>
      <rects>
        <_>
          10 9 6 3 -1.</_>
        <_>
          13 9 3 3 2.</_></rects>
      <tilted>0</tilted></_>
    <_>
      <rects>
        <_>
          10 10 3 1 -1.</_>
        <_>
          11 10 1 1 3.</_></rects>
      <tilted>0</tilted></_>
    <_>
      <rects>
        <_>
          10 10 1 3 -1.</_>
        <_>
          10 11 1 1 3.</_></rects>
      <tilted>0</tilted></_>
    <_>
      <rects>
        <_>
          10 10 2 3 -1.</_>
        <_>
          10 11 2 1 3.</_></rects>
      <tilted>0</tilted></_>
    <_>
      <rects>
        <_>
          10 11 1 3 -1.</_>
        <_>
          10 12 1 1 3.</_></rects>
      <tilted>0</tilted></_>
    <_>
      <rects>
        <_>
          10 14 2 2 -1.</_>
        <_>
          10 15 2 1 2.</_></rects>
      <tilted>0</tilted></_>
    <_>
      <rects>
        <_>
          10 15 1 4 -1.</_>
        <_>
          10 17 1 2 2.</_></rects>
      <tilted>0</tilted></_>
    <_>
      <rects>
        <_>
          11 6 2 6 -1.</_>
        <_>
          11 8 2 2 3.</_></rects>
      <tilted>0</tilted></_>
    <_>
      <rects>
        <_>
          11 9 4 5 -1.</_>
        <_>
          13 9 2 5 2.</_></rects>
      <tilted>0</tilted></_>
    <_>
      <rects>
        <_>
          11 10 4 2 -1.</_>
        <_>
          13 10 2 2 2.</_></rects>
      <tilted>0</tilted></_>
    <_>
      <rects>
        <_>
          12 9 2 4 -1.</_>
        <_>
          12 9 1 2 2.</_>
        <_>
          13 11 1 2 2.</_></rects>
      <tilted>0</tilted></_>
    <_>
      <rects>
        <_>
          12 11 2 2 -1.</_>
        <_>
          13 11 1 2 2.</_></rects>
      <tilted>0</tilted></_>
    <_>
      <rects>
        <_>
          13 2 1 4 -1.</_>
        <_>
          13 4 1 2 2.</_></rects>
      <tilted>0</tilted></_>
    <_>
      <rects>
        <_>
          15 10 3 2 -1.</_>
        <_>
          16 10 1 2 3.</_></rects>
      <tilted>0</tilted></_>
    <_>
      <rects>
        <_>
          16 8 2 4 -1.</_>
        <_>
          17 8 1 4 2.</_></rects>
      <tilted>0</tilted></_>
    <_>
      <rects>
        <_>
          16 9 2 1 -1.</_>
        <_>
          17 9 1 1 2.</_></rects>
      <tilted>0</tilted></_>
    <_>
      <rects>
        <_>
          16 9 4 1 -1.</_>
        <_>
          18 9 2 1 2.</_></rects>
      <tilted>0</tilted></_></features></cascade>
</opencv_storage>
