<?xml version="1.0"?>
<opencv_storage>
<cascade>
  <stageType>BOOST</stageType>
  <featureType>HAAR</featureType>
  <height>18</height>
  <width>18</width>
  <stageParams>
    <boostType>GAB</boostType>
    <minHitRate>9.9500000476837158e-01</minHitRate>
    <maxFalseAlarm>5.0000000000000000e-01</maxFalseAlarm>
    <weightTrimRate>9.4999999999999996e-01</weightTrimRate>
    <maxDepth>1</maxDepth>
    <maxWeakCount>100</maxWeakCount></stageParams>
  <featureParams>
    <maxCatCount>0</maxCatCount>
    <featSize>1</featSize>
    <mode>BASIC</mode></featureParams>
  <stageNum>9</stageNum>
  <stages>
    <!-- stage 0 -->
    <_>
      <maxWeakCount>6</maxWeakCount>
      <stageThreshold>-1.2176518440246582e+00</stageThreshold>
      <weakClassifiers>
        <_>
          <internalNodes>
            0 -1 18 -1.7999690026044846e-03</internalNodes>
          <leafValues>
            7.0231533050537109e-01 -8.0887371301651001e-01</leafValues></_>
        <_>
          <internalNodes>
            0 -1 48 -1.1151379439979792e-03</internalNodes>
          <leafValues>
            -8.8873922824859619e-01 3.4178292751312256e-01</leafValues></_>
        <_>
          <internalNodes>
            0 -1 60 -1.3783323811367154e-04</internalNodes>
          <leafValues>
            3.2000735402107239e-01 -7.5294035673141479e-01</leafValues></_>
        <_>
          <internalNodes>
            0 -1 12 -6.4085545018315315e-03</internalNodes>
          <leafValues>
            5.8451473712921143e-01 -4.3822205066680908e-01</leafValues></_>
        <_>
          <internalNodes>
            0 -1 51 5.4021307732909918e-04</internalNodes>
          <leafValues>
            2.4544006586074829e-01 -8.7780767679214478e-01</leafValues></_>
        <_>
          <internalNodes>
            0 -1 51 -6.7067798227071762e-04</internalNodes>
          <leafValues>
            -9.0772509574890137e-01 1.9516126811504364e-01</leafValues></_></weakClassifiers></_>
    <!-- stage 1 -->
    <_>
      <maxWeakCount>8</maxWeakCount>
      <stageThreshold>-9.0031599998474121e-01</stageThreshold>
      <weakClassifiers>
        <_>
          <internalNodes>
            0 -1 50 -2.4668262994964607e-05</internalNodes>
          <leafValues>
            6.0436135530471802e-01 -7.6793247461318970e-01</leafValues></_>
        <_>
          <internalNodes>
            0 -1 27 1.2677628546953201e-04</internalNodes>
          <leafValues>
            -6.7516851425170898e-01 3.4847807884216309e-01</leafValues></_>
        <_>
          <internalNodes>
            0 -1 32 -4.0596984326839447e-03</internalNodes>
          <leafValues>
            -8.1216186285018921e-01 3.3162069320678711e-01</leafValues></_>
        <_>
          <internalNodes>
            0 -1 72 -6.8905079388059676e-05</internalNodes>
          <leafValues>
            2.4029660224914551e-01 -6.9628053903579712e-01</leafValues></_>
        <_>
          <internalNodes>
            0 -1 5 -1.8703363835811615e-02</internalNodes>
          <leafValues>
            4.1423523426055908e-01 -5.4682332277297974e-01</leafValues></_>
        <_>
          <internalNodes>
            0 -1 57 -9.1808236902579665e-04</internalNodes>
          <leafValues>
            -9.6087545156478882e-01 1.5580585598945618e-01</leafValues></_>
        <_>
          <internalNodes>
            0 -1 33 -9.2877360293641686e-04</internalNodes>
          <leafValues>
            -8.8295781612396240e-01 1.5017205476760864e-01</leafValues></_>
        <_>
          <internalNodes>
            0 -1 28 -4.0293426718562841e-04</internalNodes>
          <leafValues>
            1.8723173439502716e-01 -7.4563670158386230e-01</leafValues></_></weakClassifiers></_>
    <!-- stage 2 -->
    <_>
      <maxWeakCount>10</maxWeakCount>
      <stageThreshold>-9.6716761589050293e-01</stageThreshold>
      <weakClassifiers>
        <_>
          <internalNodes>
            0 -1 67 -3.1447337823919952e-04</internalNodes>
          <leafValues>
            -5.8316636085510254e-01 5.7390844821929932e-01</leafValues></_>
        <_>
          <internalNodes>
            0 -1 55 -4.5474866055883467e-05</internalNodes>
          <leafValues>
            3.2102167606353760e-01 -7.1376210451126099e-01</leafValues></_>
        <_>
          <internalNodes>
            0 -1 33 5.1024794811382890e-04</internalNodes>
          <leafValues>
            3.0517950654029846e-01 -7.8029990196228027e-01</leafValues></_>
        <_>
          <internalNodes>
            0 -1 12 -3.7104845978319645e-03</internalNodes>
          <leafValues>
            3.8586515188217163e-01 -5.0645351409912109e-01</leafValues></_>
        <_>
          <internalNodes>
            0 -1 35 -1.1717772576957941e-03</internalNodes>
          <leafValues>
            -9.0230345726013184e-01 2.2344174981117249e-01</leafValues></_>
        <_>
          <internalNodes>
            0 -1 39 9.7059248946607113e-04</internalNodes>
          <leafValues>
            1.7352917790412903e-01 -7.6324313879013062e-01</leafValues></_>
        <_>
          <internalNodes>
            0 -1 64 6.5216678194701672e-04</internalNodes>
          <leafValues>
            -3.9065909385681152e-01 3.6446067690849304e-01</leafValues></_>
        <_>
          <internalNodes>
            0 -1 39 -8.0559297930449247e-04</internalNodes>
          <leafValues>
            -6.5461391210556030e-01 2.2510826587677002e-01</leafValues></_>
        <_>
          <internalNodes>
            0 -1 17 2.4429333861917257e-03</internalNodes>
          <leafValues>
            1.9363778829574585e-01 -6.0569185018539429e-01</leafValues></_>
        <_>
          <internalNodes>
            0 -1 70 4.0903044282458723e-04</internalNodes>
          <leafValues>
            -5.8798307180404663e-01 2.3057933151721954e-01</leafValues></_></weakClassifiers></_>
    <!-- stage 3 -->
    <_>
      <maxWeakCount>13</maxWeakCount>
      <stageThreshold>-1.1474399566650391e+00</stageThreshold>
      <weakClassifiers>
        <_>
          <internalNodes>
            0 -1 19 -6.6144182346761227e-04</internalNodes>
          <leafValues>
            5.3488373756408691e-01 -7.4142479896545410e-01</leafValues></_>
        <_>
          <internalNodes>
            0 -1 46 1.5979996533133090e-04</internalNodes>
          <leafValues>
            -6.3298213481903076e-01 3.2331880927085876e-01</leafValues></_>
        <_>
          <internalNodes>
            0 -1 38 -3.5135461948812008e-03</internalNodes>
          <leafValues>
            -8.6346000432968140e-01 2.1055451035499573e-01</leafValues></_>
        <_>
          <internalNodes>
            0 -1 60 -2.4800089886412024e-04</internalNodes>
          <leafValues>
            2.6734662055969238e-01 -6.9367736577987671e-01</leafValues></_>
        <_>
          <internalNodes>
            0 -1 23 -2.3214519023895264e-03</internalNodes>
          <leafValues>
            5.5210745334625244e-01 -3.0312317609786987e-01</leafValues></_>
        <_>
          <internalNodes>
            0 -1 52 -2.8712239582091570e-03</internalNodes>
          <leafValues>
            -6.6362917423248291e-01 2.4839317798614502e-01</leafValues></_>
        <_>
          <internalNodes>
            0 -1 33 -4.2918440885841846e-04</internalNodes>
          <leafValues>
            -7.2626894712448120e-01 1.8031223118305206e-01</leafValues></_>
        <_>
          <internalNodes>
            0 -1 83 1.2111661490052938e-03</internalNodes>
          <leafValues>
            -3.0922999978065491e-01 4.5071142911911011e-01</leafValues></_>
        <_>
          <internalNodes>
            0 -1 73 -4.1043022065423429e-04</internalNodes>
          <leafValues>
            -7.2071278095245361e-01 1.7419563233852386e-01</leafValues></_>
        <_>
          <internalNodes>
            0 -1 4 5.7990603148937225e-02</internalNodes>
          <leafValues>
            1.4771844446659088e-01 -8.4764599800109863e-01</leafValues></_>
        <_>
          <internalNodes>
            0 -1 36 -3.5108506563119590e-04</internalNodes>
          <leafValues>
            -6.5764045715332031e-01 1.6693291068077087e-01</leafValues></_>
        <_>
          <internalNodes>
            0 -1 69 7.9091498628258705e-04</internalNodes>
          <leafValues>
            -4.8849657177925110e-01 2.3430576920509338e-01</leafValues></_>
        <_>
          <internalNodes>
            0 -1 42 2.5688024470582604e-04</internalNodes>
          <leafValues>
            2.3385559022426605e-01 -4.8300969600677490e-01</leafValues></_></weakClassifiers></_>
    <!-- stage 4 -->
    <_>
      <maxWeakCount>8</maxWeakCount>
      <stageThreshold>-8.0585867166519165e-01</stageThreshold>
      <weakClassifiers>
        <_>
          <internalNodes>
            0 -1 56 -1.5474898100364953e-04</internalNodes>
          <leafValues>
            5.5937343835830688e-01 -7.2921615839004517e-01</leafValues></_>
        <_>
          <internalNodes>
            0 -1 24 -4.7573782503604889e-03</internalNodes>
          <leafValues>
            4.6896481513977051e-01 -4.3990716338157654e-01</leafValues></_>
        <_>
          <internalNodes>
            0 -1 10 -9.9828396923840046e-04</internalNodes>
          <leafValues>
            3.2969266176223755e-01 -5.5707848072052002e-01</leafValues></_>
        <_>
          <internalNodes>
            0 -1 27 3.5467787529341877e-04</internalNodes>
          <leafValues>
            -6.8127691745758057e-01 1.7359437048435211e-01</leafValues></_>
        <_>
          <internalNodes>
            0 -1 45 5.1644020713865757e-03</internalNodes>
          <leafValues>
            1.3045497238636017e-01 -9.3634581565856934e-01</leafValues></_>
        <_>
          <internalNodes>
            0 -1 75 -6.4735388150438666e-05</internalNodes>
          <leafValues>
            1.7718695104122162e-01 -6.0491919517517090e-01</leafValues></_>
        <_>
          <internalNodes>
            0 -1 53 3.3509632339701056e-04</internalNodes>
          <leafValues>
            2.2210045158863068e-01 -6.6431713104248047e-01</leafValues></_>
        <_>
          <internalNodes>
            0 -1 66 4.1350992978550494e-04</internalNodes>
          <leafValues>
            -6.2345016002655029e-01 2.1665288507938385e-01</leafValues></_></weakClassifiers></_>
    <!-- stage 5 -->
    <_>
      <maxWeakCount>14</maxWeakCount>
      <stageThreshold>-1.0059818029403687e+00</stageThreshold>
      <weakClassifiers>
        <_>
          <internalNodes>
            0 -1 75 -9.6539966762065887e-04</internalNodes>
          <leafValues>
            -8.4251970052719116e-01 4.7250699996948242e-01</leafValues></_>
        <_>
          <internalNodes>
            0 -1 74 -2.2998904751148075e-04</internalNodes>
          <leafValues>
            3.9194935560226440e-01 -6.0856062173843384e-01</leafValues></_>
        <_>
          <internalNodes>
            0 -1 21 2.6321865618228912e-02</internalNodes>
          <leafValues>
            -2.9513433575630188e-01 6.0502856969833374e-01</leafValues></_>
        <_>
          <internalNodes>
            0 -1 13 -1.8112850375473499e-03</internalNodes>
          <leafValues>
            2.4784390628337860e-01 -6.2732750177383423e-01</leafValues></_>
        <_>
          <internalNodes>
            0 -1 37 -3.9254990406334400e-04</internalNodes>
          <leafValues>
            1.9038943946361542e-01 -6.3101232051849365e-01</leafValues></_>
        <_>
          <internalNodes>
            0 -1 14 -3.7200517952442169e-02</internalNodes>
          <leafValues>
            -7.8529930114746094e-01 1.3085730373859406e-01</leafValues></_>
        <_>
          <internalNodes>
            0 -1 31 3.1540603376924992e-03</internalNodes>
          <leafValues>
            1.7514272034168243e-01 -6.2480437755584717e-01</leafValues></_>
        <_>
          <internalNodes>
            0 -1 7 3.1644590198993683e-02</internalNodes>
          <leafValues>
            -2.4898326396942139e-01 4.7828900814056396e-01</leafValues></_>
        <_>
          <internalNodes>
            0 -1 68 -9.5448485808447003e-05</internalNodes>
          <leafValues>
            -7.0883619785308838e-01 1.6311977803707123e-01</leafValues></_>
        <_>
          <internalNodes>
            0 -1 76 6.7205587401986122e-04</internalNodes>
          <leafValues>
            9.2650428414344788e-02 -8.2627761363983154e-01</leafValues></_>
        <_>
          <internalNodes>
            0 -1 78 1.2802041601389647e-04</internalNodes>
          <leafValues>
            2.1497157216072083e-01 -4.5448902249336243e-01</leafValues></_>
        <_>
          <internalNodes>
            0 -1 47 6.7114573903381824e-04</internalNodes>
          <leafValues>
            -3.4443941712379456e-01 3.1045430898666382e-01</leafValues></_>
        <_>
          <internalNodes>
            0 -1 22 7.2116227820515633e-03</internalNodes>
          <leafValues>
            -2.3631784319877625e-01 5.1982605457305908e-01</leafValues></_>
        <_>
          <internalNodes>
            0 -1 9 -9.7661488689482212e-04</internalNodes>
          <leafValues>
            2.3970694839954376e-01 -5.2648425102233887e-01</leafValues></_></weakClassifiers></_>
    <!-- stage 6 -->
    <_>
      <maxWeakCount>10</maxWeakCount>
      <stageThreshold>-9.9621796607971191e-01</stageThreshold>
      <weakClassifiers>
        <_>
          <internalNodes>
            0 -1 30 -1.5040673315525055e-03</internalNodes>
          <leafValues>
            5.3744941949844360e-01 -6.1792451143264771e-01</leafValues></_>
        <_>
          <internalNodes>
            0 -1 34 8.1153190694749355e-04</internalNodes>
          <leafValues>
            2.5256389379501343e-01 -7.3996818065643311e-01</leafValues></_>
        <_>
          <internalNodes>
            0 -1 34 -7.0342456456273794e-04</internalNodes>
          <leafValues>
            -8.7938874959945679e-01 1.8220132589340210e-01</leafValues></_>
        <_>
          <internalNodes>
            0 -1 81 -2.8035186696797609e-03</internalNodes>
          <leafValues>
            4.5227330923080444e-01 -3.3359012007713318e-01</leafValues></_>
        <_>
          <internalNodes>
            0 -1 76 -2.5137711782008410e-04</internalNodes>
          <leafValues>
            -6.8002909421920776e-01 1.9676484167575836e-01</leafValues></_>
        <_>
          <internalNodes>
            0 -1 61 -6.9338339380919933e-04</internalNodes>
          <leafValues>
            -8.4981793165206909e-01 1.1869536340236664e-01</leafValues></_>
        <_>
          <internalNodes>
            0 -1 25 -3.3224248909391463e-04</internalNodes>
          <leafValues>
            2.3666898906230927e-01 -4.8100841045379639e-01</leafValues></_>
        <_>
          <internalNodes>
            0 -1 2 3.3953376114368439e-03</internalNodes>
          <leafValues>
            -2.5191181898117065e-01 4.7073465585708618e-01</leafValues></_>
        <_>
          <internalNodes>
            0 -1 80 -1.0833651758730412e-03</internalNodes>
          <leafValues>
            3.5139393806457520e-01 -3.4641382098197937e-01</leafValues></_>
        <_>
          <internalNodes>
            0 -1 1 -1.6231068968772888e-01</internalNodes>
          <leafValues>
            -7.1682113409042358e-01 1.5366132557392120e-01</leafValues></_></weakClassifiers></_>
    <!-- stage 7 -->
    <_>
      <maxWeakCount>15</maxWeakCount>
      <stageThreshold>-8.0615246295928955e-01</stageThreshold>
      <weakClassifiers>
        <_>
          <internalNodes>
            0 -1 49 -1.0697633842937648e-04</internalNodes>
          <leafValues>
            -5.6498676538467407e-01 5.0074148178100586e-01</leafValues></_>
        <_>
          <internalNodes>
            0 -1 20 -7.1490870323032141e-04</internalNodes>
          <leafValues>
            2.1817955374717712e-01 -6.5806305408477783e-01</leafValues></_>
        <_>
          <internalNodes>
            0 -1 11 1.4036206994205713e-04</internalNodes>
          <leafValues>
            2.6814299821853638e-01 -4.3383538722991943e-01</leafValues></_>
        <_>
          <internalNodes>
            0 -1 44 2.1835728548467159e-03</internalNodes>
          <leafValues>
            -3.6249309778213501e-01 3.7597385048866272e-01</leafValues></_>
        <_>
          <internalNodes>
            0 -1 16 2.4111380800604820e-02</internalNodes>
          <leafValues>
            1.3770340383052826e-01 -8.0429053306579590e-01</leafValues></_>
        <_>
          <internalNodes>
            0 -1 82 -9.9787884391844273e-04</internalNodes>
          <leafValues>
            3.4860375523567200e-01 -3.0473390221595764e-01</leafValues></_>
        <_>
          <internalNodes>
            0 -1 57 -4.5005639549344778e-04</internalNodes>
          <leafValues>
            -7.7635854482650757e-01 9.6570640802383423e-02</leafValues></_>
        <_>
          <internalNodes>
            0 -1 29 -1.6943112714216113e-03</internalNodes>
          <leafValues>
            1.4060659706592560e-01 -6.3977956771850586e-01</leafValues></_>
        <_>
          <internalNodes>
            0 -1 26 -1.0249517858028412e-02</internalNodes>
          <leafValues>
            -7.7293401956558228e-01 1.1795064806938171e-01</leafValues></_>
        <_>
          <internalNodes>
            0 -1 41 -6.8470286205410957e-03</internalNodes>
          <leafValues>
            4.6191462874412537e-01 -2.2597149014472961e-01</leafValues></_>
        <_>
          <internalNodes>
            0 -1 79 2.6237749261781573e-04</internalNodes>
          <leafValues>
            -3.5965284705162048e-01 2.6267322897911072e-01</leafValues></_>
        <_>
          <internalNodes>
            0 -1 59 -1.2851913925260305e-04</internalNodes>
          <leafValues>
            1.5100857615470886e-01 -5.5902850627899170e-01</leafValues></_>
        <_>
          <internalNodes>
            0 -1 40 2.4082773597911000e-04</internalNodes>
          <leafValues>
            2.4093151092529297e-01 -5.3605395555496216e-01</leafValues></_>
        <_>
          <internalNodes>
            0 -1 62 3.4841969609260559e-03</internalNodes>
          <leafValues>
            -1.9835844635963440e-01 4.6592676639556885e-01</leafValues></_>
        <_>
          <internalNodes>
            0 -1 33 -3.3383676782250404e-04</internalNodes>
          <leafValues>
            -5.9048199653625488e-01 1.4952616393566132e-01</leafValues></_></weakClassifiers></_>
    <!-- stage 8 -->
    <_>
      <maxWeakCount>15</maxWeakCount>
      <stageThreshold>-9.9526733160018921e-01</stageThreshold>
      <weakClassifiers>
        <_>
          <internalNodes>
            0 -1 72 -1.1304108193144202e-04</internalNodes>
          <leafValues>
            5.2139461040496826e-01 -3.6883628368377686e-01</leafValues></_>
        <_>
          <internalNodes>
            0 -1 71 -6.4911448862403631e-04</internalNodes>
          <leafValues>
            -7.6688671112060547e-01 2.1745519340038300e-01</leafValues></_>
        <_>
          <internalNodes>
            0 -1 33 3.2787519739940763e-04</internalNodes>
          <leafValues>
            1.7661195993423462e-01 -6.1942470073699951e-01</leafValues></_>
        <_>
          <internalNodes>
            0 -1 12 -4.4645471498370171e-03</internalNodes>
          <leafValues>
            2.8922390937805176e-01 -4.0708059072494507e-01</leafValues></_>
        <_>
          <internalNodes>
            0 -1 63 1.1916441144421697e-04</internalNodes>
          <leafValues>
            2.1874569356441498e-01 -4.6937239170074463e-01</leafValues></_>
        <_>
          <internalNodes>
            0 -1 6 3.7191413342952728e-02</internalNodes>
          <leafValues>
            -2.1330158412456512e-01 4.4950249791145325e-01</leafValues></_>
        <_>
          <internalNodes>
            0 -1 65 7.0947135100141168e-04</internalNodes>
          <leafValues>
            -2.5909003615379333e-01 4.2633992433547974e-01</leafValues></_>
        <_>
          <internalNodes>
            0 -1 58 8.7751261889934540e-04</internalNodes>
          <leafValues>
            1.4142075181007385e-01 -7.7845394611358643e-01</leafValues></_>
        <_>
          <internalNodes>
            0 -1 43 -2.1949200890958309e-04</internalNodes>
          <leafValues>
            2.9014787077903748e-01 -3.2891848683357239e-01</leafValues></_>
        <_>
          <internalNodes>
            0 -1 0 2.0446476992219687e-03</internalNodes>
          <leafValues>
            -1.7841628193855286e-01 5.0354576110839844e-01</leafValues></_>
        <_>
          <internalNodes>
            0 -1 77 -4.7636713134124875e-04</internalNodes>
          <leafValues>
            -7.6252657175064087e-01 1.2159169465303421e-01</leafValues></_>
        <_>
          <internalNodes>
            0 -1 3 -1.0607447475194931e-03</internalNodes>
          <leafValues>
            4.0300387144088745e-01 -2.2545976936817169e-01</leafValues></_>
        <_>
          <internalNodes>
            0 -1 15 5.4499070392921567e-04</internalNodes>
          <leafValues>
            -4.6578064560890198e-01 1.9539719820022583e-01</leafValues></_>
        <_>
          <internalNodes>
            0 -1 8 3.7613037973642349e-02</internalNodes>
          <leafValues>
            9.3920230865478516e-02 -8.3294045925140381e-01</leafValues></_>
        <_>
          <internalNodes>
            0 -1 54 -1.0772598907351494e-03</internalNodes>
          <leafValues>
            -9.3830317258834839e-01 5.6647632271051407e-02</leafValues></_></weakClassifiers></_></stages>
  <features>
    <_>
      <rects>
        <_>
          5 4 1 3 -1.</_>
        <_>
          5 5 1 1 3.</_></rects>
      <tilted>0</tilted></_>
    <_>
      <rects>
        <_>
          5 4 10 10 -1.</_>
        <_>
          10 4 5 10 2.</_></rects>
      <tilted>0</tilted></_>
    <_>
      <rects>
        <_>
          5 8 3 3 -1.</_>
        <_>
          6 8 1 3 3.</_></rects>
      <tilted>0</tilted></_>
    <_>
      <rects>
        <_>
          5 11 1 3 -1.</_>
        <_>
          5 12 1 1 3.</_></rects>
      <tilted>0</tilted></_>
    <_>
      <rects>
        <_>
          6 4 6 10 -1.</_>
        <_>
          6 9 6 5 2.</_></rects>
      <tilted>0</tilted></_>
    <_>
      <rects>
        <_>
          6 5 9 10 -1.</_>
        <_>
          9 5 3 10 3.</_></rects>
      <tilted>0</tilted></_>
    <_>
      <rects>
        <_>
          6 11 7 6 -1.</_>
        <_>
          6 14 7 3 2.</_></rects>
      <tilted>0</tilted></_>
    <_>
      <rects>
        <_>
          7 0 6 6 -1.</_>
        <_>
          7 2 6 2 3.</_></rects>
      <tilted>0</tilted></_>
    <_>
      <rects>
        <_>
          7 5 7 6 -1.</_>
        <_>
          7 8 7 3 2.</_></rects>
      <tilted>0</tilted></_>
    <_>
      <rects>
        <_>
          7 8 4 1 -1.</_>
        <_>
          9 8 2 1 2.</_></rects>
      <tilted>0</tilted></_>
    <_>
      <rects>
        <_>
          7 9 4 2 -1.</_>
        <_>
          9 9 2 2 2.</_></rects>
      <tilted>0</tilted></_>
    <_>
      <rects>
        <_>
          8 3 1 10 -1.</_>
        <_>
          8 8 1 5 2.</_></rects>
      <tilted>0</tilted></_>
    <_>
      <rects>
        <_>
          8 3 2 4 -1.</_>
        <_>
          8 5 2 2 2.</_></rects>
      <tilted>0</tilted></_>
    <_>
      <rects>
        <_>
          8 6 6 2 -1.</_>
        <_>
          10 6 2 2 3.</_></rects>
      <tilted>0</tilted></_>
    <_>
      <rects>
        <_>
          8 6 4 9 -1.</_>
        <_>
          10 6 2 9 2.</_></rects>
      <tilted>0</tilted></_>
    <_>
      <rects>
        <_>
          8 6 3 6 -1.</_>
        <_>
          8 8 3 2 3.</_></rects>
      <tilted>0</tilted></_>
    <_>
      <rects>
        <_>
          8 6 5 6 -1.</_>
        <_>
          8 9 5 3 2.</_></rects>
      <tilted>0</tilted></_>
    <_>
      <rects>
        <_>
          8 8 2 6 -1.</_>
        <_>
          8 10 2 2 3.</_></rects>
      <tilted>0</tilted></_>
    <_>
      <rects>
        <_>
          8 8 4 3 -1.</_>
        <_>
          10 8 2 3 2.</_></rects>
      <tilted>0</tilted></_>
    <_>
      <rects>
        <_>
          8 9 4 1 -1.</_>
        <_>
          10 9 2 1 2.</_></rects>
      <tilted>0</tilted></_>
    <_>
      <rects>
        <_>
          8 10 4 1 -1.</_>
        <_>
          10 10 2 1 2.</_></rects>
      <tilted>0</tilted></_>
    <_>
      <rects>
        <_>
          8 13 6 4 -1.</_>
        <_>
          8 15 6 2 2.</_></rects>
      <tilted>0</tilted></_>
    <_>
      <rects>
        <_>
          9 2 3 6 -1.</_>
        <_>
          9 4 3 2 3.</_></rects>
      <tilted>0</tilted></_>
    <_>
      <rects>
        <_>
          9 3 1 2 -1.</_>
        <_>
          9 4 1 1 2.</_></rects>
      <tilted>0</tilted></_>
    <_>
      <rects>
        <_>
          9 3 2 4 -1.</_>
        <_>
          9 5 2 2 2.</_></rects>
      <tilted>0</tilted></_>
    <_>
      <rects>
        <_>
          9 4 2 3 -1.</_>
        <_>
          9 5 2 1 3.</_></rects>
      <tilted>0</tilted></_>
    <_>
      <rects>
        <_>
          9 5 2 7 -1.</_>
        <_>
          10 5 1 7 2.</_></rects>
      <tilted>0</tilted></_>
    <_>
      <rects>
        <_>
          9 6 2 6 -1.</_>
        <_>
          9 8 2 2 3.</_></rects>
      <tilted>0</tilted></_>
    <_>
      <rects>
        <_>
          9 8 2 5 -1.</_>
        <_>
          10 8 1 5 2.</_></rects>
      <tilted>0</tilted></_>
    <_>
      <rects>
        <_>
          9 8 6 2 -1.</_>
        <_>
          11 8 2 2 3.</_></rects>
      <tilted>0</tilted></_>
    <_>
      <rects>
        <_>
          9 8 6 3 -1.</_>
        <_>
          11 8 2 3 3.</_></rects>
      <tilted>0</tilted></_>
    <_>
      <rects>
        <_>
          9 8 3 4 -1.</_>
        <_>
          9 10 3 2 2.</_></rects>
      <tilted>0</tilted></_>
    <_>
      <rects>
        <_>
          9 9 4 1 -1.</_>
        <_>
          11 9 2 1 2.</_></rects>
      <tilted>0</tilted></_>
    <_>
      <rects>
        <_>
          9 9 2 3 -1.</_>
        <_>
          9 10 2 1 3.</_></rects>
      <tilted>0</tilted></_>
    <_>
      <rects>
        <_>
          9 9 3 2 -1.</_>
        <_>
          9 10 3 1 2.</_></rects>
      <tilted>0</tilted></_>
    <_>
      <rects>
        <_>
          9 9 4 2 -1.</_>
        <_>
          9 10 4 1 2.</_></rects>
      <tilted>0</tilted></_>
    <_>
      <rects>
        <_>
          9 10 1 3 -1.</_>
        <_>
          9 11 1 1 3.</_></rects>
      <tilted>0</tilted></_>
    <_>
      <rects>
        <_>
          9 10 2 3 -1.</_>
        <_>
          10 10 1 3 2.</_></rects>
      <tilted>0</tilted></_>
    <_>
      <rects>
        <_>
          9 10 4 1 -1.</_>
        <_>
          11 10 2 1 2.</_></rects>
      <tilted>0</tilted></_>
    <_>
      <rects>
        <_>
          9 10 3 3 -1.</_>
        <_>
          9 11 3 1 3.</_></rects>
      <tilted>0</tilted></_>
    <_>
      <rects>
        <_>
          9 11 3 3 -1.</_>
        <_>
          10 11 1 3 3.</_></rects>
      <tilted>0</tilted></_>
    <_>
      <rects>
        <_>
          9 11 2 6 -1.</_>
        <_>
          9 13 2 2 3.</_></rects>
      <tilted>0</tilted></_>
    <_>
      <rects>
        <_>
          9 12 3 1 -1.</_>
        <_>
          10 12 1 1 3.</_></rects>
      <tilted>0</tilted></_>
    <_>
      <rects>
        <_>
          9 13 2 2 -1.</_>
        <_>
          9 14 2 1 2.</_></rects>
      <tilted>0</tilted></_>
    <_>
      <rects>
        <_>
          10 5 2 4 -1.</_>
        <_>
          10 7 2 2 2.</_></rects>
      <tilted>0</tilted></_>
    <_>
      <rects>
        <_>
          10 6 1 4 -1.</_>
        <_>
          10 8 1 2 2.</_></rects>
      <tilted>0</tilted></_>
    <_>
      <rects>
        <_>
          10 6 1 6 -1.</_>
        <_>
          10 8 1 2 3.</_></rects>
      <tilted>0</tilted></_>
    <_>
      <rects>
        <_>
          10 6 3 2 -1.</_>
        <_>
          10 7 3 1 2.</_></rects>
      <tilted>0</tilted></_>
    <_>
      <rects>
        <_>
          10 7 2 4 -1.</_>
        <_>
          10 9 2 2 2.</_></rects>
      <tilted>0</tilted></_>
    <_>
      <rects>
        <_>
          10 7 2 6 -1.</_>
        <_>
          10 9 2 2 3.</_></rects>
      <tilted>0</tilted></_>
    <_>
      <rects>
        <_>
          10 9 2 1 -1.</_>
        <_>
          11 9 1 1 2.</_></rects>
      <tilted>0</tilted></_>
    <_>
      <rects>
        <_>
          10 9 1 3 -1.</_>
        <_>
          10 10 1 1 3.</_></rects>
      <tilted>0</tilted></_>
    <_>
      <rects>
        <_>
          10 9 3 3 -1.</_>
        <_>
          11 9 1 3 3.</_></rects>
      <tilted>0</tilted></_>
    <_>
      <rects>
        <_>
          10 9 3 4 -1.</_>
        <_>
          11 9 1 4 3.</_></rects>
      <tilted>0</tilted></_>
    <_>
      <rects>
        <_>
          10 9 2 3 -1.</_>
        <_>
          10 10 2 1 3.</_></rects>
      <tilted>0</tilted></_>
    <_>
      <rects>
        <_>
          10 10 2 1 -1.</_>
        <_>
          11 10 1 1 2.</_></rects>
      <tilted>0</tilted></_>
    <_>
      <rects>
        <_>
          10 10 2 2 -1.</_>
        <_>
          11 10 1 2 2.</_></rects>
      <tilted>0</tilted></_>
    <_>
      <rects>
        <_>
          10 10 2 2 -1.</_>
        <_>
          10 11 2 1 2.</_></rects>
      <tilted>0</tilted></_>
    <_>
      <rects>
        <_>
          10 10 2 3 -1.</_>
        <_>
          10 11 2 1 3.</_></rects>
      <tilted>0</tilted></_>
    <_>
      <rects>
        <_>
          10 11 2 1 -1.</_>
        <_>
          11 11 1 1 2.</_></rects>
      <tilted>0</tilted></_>
    <_>
      <rects>
        <_>
          10 11 2 2 -1.</_>
        <_>
          11 11 1 2 2.</_></rects>
      <tilted>0</tilted></_>
    <_>
      <rects>
        <_>
          10 11 2 2 -1.</_>
        <_>
          10 12 2 1 2.</_></rects>
      <tilted>0</tilted></_>
    <_>
      <rects>
        <_>
          10 11 2 6 -1.</_>
        <_>
          10 13 2 2 3.</_></rects>
      <tilted>0</tilted></_>
    <_>
      <rects>
        <_>
          10 12 1 2 -1.</_>
        <_>
          10 13 1 1 2.</_></rects>
      <tilted>0</tilted></_>
    <_>
      <rects>
        <_>
          11 5 1 4 -1.</_>
        <_>
          11 7 1 2 2.</_></rects>
      <tilted>0</tilted></_>
    <_>
      <rects>
        <_>
          11 5 2 2 -1.</_>
        <_>
          11 6 2 1 2.</_></rects>
      <tilted>0</tilted></_>
    <_>
      <rects>
        <_>
          11 6 1 6 -1.</_>
        <_>
          11 9 1 3 2.</_></rects>
      <tilted>0</tilted></_>
    <_>
      <rects>
        <_>
          11 7 1 6 -1.</_>
        <_>
          11 9 1 2 3.</_></rects>
      <tilted>0</tilted></_>
    <_>
      <rects>
        <_>
          11 7 1 6 -1.</_>
        <_>
          11 10 1 3 2.</_></rects>
      <tilted>0</tilted></_>
    <_>
      <rects>
        <_>
          11 7 2 4 -1.</_>
        <_>
          11 9 2 2 2.</_></rects>
      <tilted>0</tilted></_>
    <_>
      <rects>
        <_>
          11 7 2 6 -1.</_>
        <_>
          11 10 2 3 2.</_></rects>
      <tilted>0</tilted></_>
    <_>
      <rects>
        <_>
          11 9 2 1 -1.</_>
        <_>
          12 9 1 1 2.</_></rects>
      <tilted>0</tilted></_>
    <_>
      <rects>
        <_>
          11 9 2 2 -1.</_>
        <_>
          12 9 1 2 2.</_></rects>
      <tilted>0</tilted></_>
    <_>
      <rects>
        <_>
          11 9 1 4 -1.</_>
        <_>
          11 11 1 2 2.</_></rects>
      <tilted>0</tilted></_>
    <_>
      <rects>
        <_>
          11 9 2 3 -1.</_>
        <_>
          12 9 1 3 2.</_></rects>
      <tilted>0</tilted></_>
    <_>
      <rects>
        <_>
          11 10 2 1 -1.</_>
        <_>
          12 10 1 1 2.</_></rects>
      <tilted>0</tilted></_>
    <_>
      <rects>
        <_>
          11 10 1 3 -1.</_>
        <_>
          11 11 1 1 3.</_></rects>
      <tilted>0</tilted></_>
    <_>
      <rects>
        <_>
          11 10 2 2 -1.</_>
        <_>
          11 11 2 1 2.</_></rects>
      <tilted>0</tilted></_>
    <_>
      <rects>
        <_>
          11 11 1 2 -1.</_>
        <_>
          11 12 1 1 2.</_></rects>
      <tilted>0</tilted></_>
    <_>
      <rects>
        <_>
          12 6 1 4 -1.</_>
        <_>
          12 8 1 2 2.</_></rects>
      <tilted>0</tilted></_>
    <_>
      <rects>
        <_>
          12 7 3 4 -1.</_>
        <_>
          13 7 1 4 3.</_></rects>
      <tilted>0</tilted></_>
    <_>
      <rects>
        <_>
          13 7 3 3 -1.</_>
        <_>
          14 7 1 3 3.</_></rects>
      <tilted>0</tilted></_>
    <_>
      <rects>
        <_>
          13 8 3 1 -1.</_>
        <_>
          14 8 1 1 3.</_></rects>
      <tilted>0</tilted></_>
    <_>
      <rects>
        <_>
          14 9 2 1 -1.</_>
        <_>
          15 9 1 1 2.</_></rects>
      <tilted>0</tilted></_></features></cascade>
</opencv_storage>
